L 0.911685 0.299997 -0.363619 0.097657 -0.174607 0.457182 -0.136388 -0.269385 -0.532391 -0.436889 1.407072 1.106920 0.418050 -0.685367 -0.239042 -0.062974 -0.352683 0.457115 -0.433780 0.148914 -0.436109 0.129376 -0.213080 -0.587549 0.005607 -0.598434 -0.164660 -0.093676 0.115367 -0.031502 0.289485 0.221351 0.949179 0.753939 -0.321273 1.065969 -0.552212 0.273847 -0.412412 -0.421182 0.314331 0.111581 -0.291903 -0.336231 0.319516 -0.029650 -0.061806 -0.167196 0.979112 -0.430146 -0.138471 -0.223730 -0.215806 0.208109 -0.784146 0.044736 -0.551455 -0.129738 -0.199887 0.976041 -0.205756 0.147398 0.131072 0.992921 -0.238204 -0.568627 -0.909036 0.042270 0.095602 1.008826 0.916783 -0.488584 -0.258715 0.333375 -0.129260 -0.816483 0.336307 1.199392 -0.276414 -0.010540 -0.176763 -0.767750 -1.032600 0.993202 -0.546000 -0.321043 0.157582 0.273495 -0.666903 -0.171548 -0.025266 0.018581 0.847633 0.096564 0.286369 -0.066035 -0.577724 -0.263900 1.121251 -0.943161 -0.072861 0.010450 1.597008 0.247129 0.550596 -0.715267 0.386759 -0.535450 0.342695 0.242636 1.271843 0.837602 -1.134823 0.207689 0.684037 -0.702466 -0.694958 0.023803 0.031463 -0.745604 -0.657525 -0.655016 -0.288844 -0.083350 0.684457 -1.003729 -0.404572 -1.091266
A 0.915782 0.266297 -0.314339 -0.007234 -0.111944 0.472305 -0.088214 -0.282411 -0.482208 -0.437817 1.391792 1.085479 0.410326 -0.674580 -0.191097 -0.099160 -0.414000 0.469880 -0.506340 0.236179 -0.467410 0.141104 -0.273485 -0.652275 0.080662 -0.570581 -0.240157 -0.068827 0.067993 0.016172 0.288133 0.265573 0.886951 0.733331 -0.360688 1.042318 -0.524304 0.163466 -0.381006 -0.407724 0.191305 0.148065 -0.272099 -0.279534 0.380751 -0.037679 -0.050432 -0.226984 0.932553 -0.368434 -0.090611 -0.149461 -0.189336 0.201218 -0.827689 0.072163 -0.490503 -0.095224 -0.152057 0.895394 -0.184844 0.097130 0.088330 0.917299 -0.243877 -0.573293 -0.854795 0.002746 0.050226 0.983278 0.972805 -0.441673 -0.151511 0.393440 -0.069246 -0.792224 0.339887 1.071105 -0.277017 0.030111 -0.134396 -0.675346 -1.103014 0.983083 -0.553758 -0.349794 0.212882 0.215554 -0.526745 -0.069580 -0.003386 0.065659 0.773476 0.152488 0.296610 -0.057722 -0.592321 -0.219998 1.115059 -0.857129 -0.089910 0.020822 1.602335 0.203506 0.437148 -0.729285 0.370115 -0.537006 0.308694 0.258682 1.249183 0.822398 -1.133869 0.183040 0.737028 -0.724948 -0.696220 0.005053 0.004071 -0.749369 -0.689514 -0.780583 -0.312819 -0.066740 0.708708 -0.981867 -0.333906 -1.179615
S 0.896551 0.213258 -0.330167 0.037177 -0.141075 0.445307 -0.088872 -0.291079 -0.513988 -0.481230 1.429265 1.106204 0.450050 -0.677703 -0.215623 -0.112364 -0.383984 0.522138 -0.544655 0.117862 -0.434014 0.140954 -0.168305 -0.590744 0.048349 -0.582103 -0.167713 -0.119617 0.145518 0.045616 0.234945 0.213844 0.927911 0.711265 -0.350712 0.975499 -0.492899 0.175829 -0.334767 -0.412249 0.263927 0.185268 -0.272889 -0.302229 0.305404 -0.005370 -0.075640 -0.196501 0.829136 -0.337354 -0.091706 -0.194384 -0.098844 0.242394 -0.704063 0.056207 -0.525109 -0.069184 -0.197704 0.834154 -0.194977 0.100454 0.081035 0.866598 -0.251905 -0.513180 -0.861880 -0.003391 0.127012 0.942587 0.958898 -0.513070 -0.220199 0.323883 -0.166804 -0.668430 0.257898 1.054618 -0.263749 0.033530 -0.123188 -0.691442 -0.966734 0.954259 -0.529290 -0.351361 0.151559 0.222176 -0.528800 -0.118047 -0.023448 0.048266 0.811917 0.129471 0.288473 -0.014493 -0.661190 -0.206441 1.061380 -0.891620 -0.074213 0.022291 1.592412 0.209112 0.442940 -0.740657 0.431256 -0.588613 0.259805 0.171942 1.198775 0.806672 -1.093305 0.271774 0.737224 -0.690487 -0.608340 -0.046379 0.082170 -0.735614 -0.726179 -0.744883 -0.349506 -0.004058 0.623658 -0.925096 -0.338764 -1.211185
G 0.949341 0.397291 -0.370009 0.113510 -0.199264 0.466585 -0.142455 -0.303867 -0.517590 -0.455950 1.421589 1.200228 0.453509 -0.691746 -0.280476 -0.009899 -0.435072 0.433537 -0.495091 0.191715 -0.487334 0.202950 -0.207800 -0.631088 -0.014088 -0.608049 -0.145237 -0.059897 0.075590 -0.076428 0.290699 0.166756 0.914101 0.723461 -0.329956 0.981572 -0.496593 0.245317 -0.368779 -0.387855 0.284423 0.149624 -0.250520 -0.259889 0.270597 -0.029785 -0.045634 -0.142196 1.023114 -0.421235 -0.131981 -0.188177 -0.184257 0.145549 -0.745112 0.055444 -0.505578 -0.119298 -0.152778 0.904165 -0.242161 0.112723 0.131597 0.972605 -0.184020 -0.562011 -0.827763 0.042625 0.107353 0.956045 0.881778 -0.460779 -0.219956 0.302846 -0.144395 -0.788113 0.286015 1.140682 -0.309834 0.050919 -0.158267 -0.745123 -1.006754 0.953364 -0.493748 -0.248925 0.119282 0.295678 -0.617671 -0.170877 -0.101876 0.015899 0.848101 0.129528 0.291986 -0.118547 -0.546663 -0.295384 1.091173 -0.971319 -0.045595 0.032899 1.474334 0.243659 0.605976 -0.716366 0.368227 -0.580942 0.331692 0.262506 1.249961 0.801401 -1.148429 0.203228 0.590790 -0.670073 -0.652247 0.073066 0.051038 -0.665085 -0.635788 -0.669316 -0.315840 -0.125183 0.655615 -1.012507 -0.416705 -1.047871
V 0.877680 0.222970 -0.293210 -0.066031 -0.076240 0.475104 -0.037460 -0.253844 -0.410567 -0.483991 1.348864 1.047356 0.387704 -0.680162 -0.183943 -0.067009 -0.388341 0.512651 -0.557594 0.215594 -0.496656 0.118255 -0.274083 -0.603495 0.140136 -0.528509 -0.237676 -0.066531 0.147868 0.062443 0.269352 0.281641 0.934909 0.769631 -0.389421 1.056732 -0.508227 0.125265 -0.378898 -0.383160 0.186618 0.164558 -0.253509 -0.276661 0.412721 -0.020255 -0.059729 -0.223323 0.881135 -0.354788 -0.087026 -0.139392 -0.141816 0.229091 -0.774122 0.095122 -0.516157 -0.085605 -0.156736 0.822809 -0.146051 0.142282 0.097864 0.875388 -0.306757 -0.547719 -0.892980 -0.052908 0.093344 0.951168 1.044430 -0.467201 -0.157670 0.430860 -0.025855 -0.698176 0.345054 1.007687 -0.273287 -0.004114 -0.141274 -0.672733 -1.041970 1.036438 -0.562988 -0.322770 0.192979 0.207509 -0.480533 -0.069054 0.019949 0.096343 0.783246 0.140261 0.317340 0.010357 -0.627208 -0.175284 1.050622 -0.817444 -0.084536 -0.023319 1.533745 0.199275 0.396869 -0.697605 0.325103 -0.566419 0.300954 0.194174 1.173105 0.804717 -1.080219 0.231146 0.776489 -0.676521 -0.674410 0.006273 0.013185 -0.723793 -0.710487 -0.764475 -0.308145 -0.026186 0.642450 -0.939443 -0.305947 -1.197003
E 0.949859 0.275715 -0.359703 0.068340 -0.073914 0.449589 -0.127670 -0.248854 -0.509104 -0.481205 1.412623 1.075810 0.360549 -0.698322 -0.231371 -0.074235 -0.370794 0.456715 -0.486428 0.167334 -0.481397 0.118884 -0.277269 -0.597846 0.046287 -0.530401 -0.175286 -0.130336 0.174114 -0.055387 0.368952 0.198828 0.920184 0.677341 -0.364739 1.094220 -0.607468 0.212588 -0.434977 -0.349849 0.215845 0.068846 -0.300883 -0.346366 0.358650 -0.002915 -0.003959 -0.166391 0.961195 -0.364438 -0.112500 -0.226850 -0.235282 0.248420 -0.793670 0.019437 -0.555603 -0.143102 -0.224585 0.960811 -0.198076 0.203546 0.190982 0.978291 -0.264068 -0.530426 -0.904473 0.038737 0.122979 0.926332 0.955942 -0.477996 -0.212000 0.377452 -0.094808 -0.803130 0.377596 1.153331 -0.186869 -0.060748 -0.200174 -0.742043 -0.989118 0.972577 -0.597421 -0.314055 0.232242 0.214905 -0.654811 -0.183795 0.053066 0.070665 0.802525 0.084067 0.277162 -0.057217 -0.616313 -0.238641 1.082286 -0.901574 -0.080400 -0.014480 1.530334 0.278542 0.485497 -0.706815 0.333913 -0.502781 0.380429 0.218647 1.236795 0.823967 -1.087473 0.142093 0.756086 -0.708972 -0.723315 0.061674 0.005748 -0.790001 -0.623358 -0.633928 -0.294290 -0.095084 0.668743 -0.977510 -0.329269 -1.042266
R 0.843602 0.275519 -0.310442 0.023309 -0.108767 0.449084 -0.091209 -0.273546 -0.461943 -0.452270 1.295779 1.035951 0.392571 -0.658922 -0.212438 -0.078341 -0.368796 0.469152 -0.442544 0.154094 -0.420085 0.144084 -0.214402 -0.554189 0.069492 -0.594126 -0.228231 -0.071129 0.115738 0.008732 0.268086 0.239087 0.962001 0.755527 -0.366849 1.093636 -0.542910 0.197663 -0.418504 -0.402532 0.258535 0.115026 -0.283722 -0.306522 0.356973 -0.031901 -0.050235 -0.206944 0.952694 -0.397056 -0.126750 -0.196263 -0.235154 0.206052 -0.834460 0.074104 -0.539301 -0.103939 -0.177457 0.944048 -0.219695 0.161129 0.133620 0.957362 -0.269685 -0.599302 -0.916219 0.010414 0.118362 1.023481 0.997257 -0.475904 -0.198244 0.372768 -0.103700 -0.816824 0.351440 1.146227 -0.279591 0.000005 -0.153338 -0.730881 -1.077461 1.029850 -0.556450 -0.320695 0.163947 0.272494 -0.582471 -0.123840 0.007367 0.055732 0.827159 0.127162 0.322887 -0.060826 -0.633571 -0.234981 1.154761 -0.911937 -0.086734 -0.002770 1.598329 0.254059 0.497769 -0.712882 0.366226 -0.570311 0.309594 0.237114 1.268235 0.839787 -1.148067 0.244494 0.754074 -0.713373 -0.722996 0.014268 0.024963 -0.754527 -0.673998 -0.719286 -0.282953 -0.085290 0.680045 -0.991167 -0.372693 -1.133200
T 0.911916 0.258924 -0.334899 0.046912 -0.150789 0.466403 -0.096855 -0.276844 -0.513393 -0.438290 1.422853 1.083535 0.428788 -0.684424 -0.235763 -0.072809 -0.383418 0.472475 -0.492110 0.201969 -0.471058 0.121988 -0.234685 -0.627944 0.056487 -0.569796 -0.165934 -0.097084 0.091329 0.003356 0.279471 0.234291 0.917395 0.766110 -0.347722 1.013743 -0.523251 0.237842 -0.359599 -0.416791 0.274238 0.152373 -0.258986 -0.314169 0.332963 -0.021396 -0.083400 -0.191484 0.938773 -0.401034 -0.126672 -0.173314 -0.138164 0.210306 -0.747506 0.051279 -0.522534 -0.086754 -0.173392 0.877361 -0.171716 0.100131 0.065539 0.935001 -0.244357 -0.539662 -0.887634 0.006632 0.090208 0.972784 0.921853 -0.483306 -0.230097 0.345873 -0.101906 -0.731002 0.308864 1.093669 -0.278492 0.032385 -0.168307 -0.727859 -1.017809 0.996126 -0.564532 -0.340593 0.187260 0.217195 -0.579006 -0.117473 -0.015132 0.046096 0.776222 0.104533 0.279021 -0.032651 -0.566367 -0.232135 1.018478 -0.849807 -0.088495 0.011520 1.507526 0.178722 0.473872 -0.699326 0.373279 -0.518316 0.287303 0.226169 1.191653 0.775220 -1.062663 0.206413 0.679747 -0.666931 -0.624564 0.004938 0.040017 -0.684408 -0.683824 -0.693669 -0.321006 -0.035715 0.644371 -0.936428 -0.352689 -1.121779
D 0.977842 0.208750 -0.375699 0.045378 -0.057090 0.427477 -0.061121 -0.283784 -0.518497 -0.572769 1.459417 1.139910 0.449260 -0.719207 -0.246646 -0.095500 -0.386805 0.532962 -0.632185 0.146437 -0.490878 0.173229 -0.239536 -0.606146 0.081153 -0.482000 -0.180130 -0.149726 0.221582 0.014468 0.373806 0.191540 1.030845 0.691933 -0.441384 1.124061 -0.614244 0.136397 -0.433098 -0.351888 0.235000 0.130758 -0.307580 -0.341978 0.366712 0.044662 -0.020952 -0.179163 0.905918 -0.309224 -0.067389 -0.199350 -0.131301 0.324198 -0.767790 0.048137 -0.614407 -0.129891 -0.262309 0.893839 -0.230386 0.187574 0.191039 0.969981 -0.310480 -0.515045 -0.979238 -0.012734 0.221711 0.952851 1.134438 -0.571791 -0.209595 0.382761 -0.129462 -0.715524 0.307349 1.149732 -0.161738 -0.024275 -0.162413 -0.770759 -0.971490 1.042512 -0.638970 -0.348493 0.221148 0.206476 -0.560190 -0.184416 0.069529 0.102873 0.788384 0.096133 0.301393 -0.021116 -0.695819 -0.201732 1.006259 -0.878333 -0.084946 0.000161 1.477336 0.271254 0.432091 -0.744459 0.345703 -0.558475 0.298928 0.147128 1.117323 0.805884 -1.016215 0.210839 0.777624 -0.685458 -0.648274 0.006548 0.079211 -0.757647 -0.658283 -0.667174 -0.381221 -0.013303 0.598499 -0.894214 -0.267449 -1.081490
I 0.969557 0.167939 -0.353979 -0.018007 -0.049482 0.443861 -0.036734 -0.226409 -0.426632 -0.565776 1.432930 1.114194 0.413074 -0.707536 -0.187414 -0.055584 -0.392056 0.550123 -0.718624 0.133751 -0.548290 0.127007 -0.264062 -0.585772 0.110726 -0.440540 -0.157005 -0.128783 0.276931 0.044330 0.364287 0.219077 1.056338 0.731351 -0.462380 1.103480 -0.583246 0.072713 -0.401126 -0.351366 0.180818 0.229378 -0.295780 -0.294135 0.422597 0.058109 -0.015287 -0.179239 0.863619 -0.262913 -0.009524 -0.175213 -0.036967 0.343394 -0.683784 0.066791 -0.608844 -0.133542 -0.239415 0.833670 -0.149914 0.191842 0.197520 0.905963 -0.340151 -0.452576 -0.913248 -0.068357 0.183918 0.885034 1.195904 -0.571999 -0.196230 0.441795 -0.113604 -0.613043 0.318507 1.051649 -0.192530 -0.046960 -0.137272 -0.743133 -0.954203 1.049463 -0.609816 -0.345408 0.211250 0.180229 -0.498268 -0.159494 0.010831 0.125924 0.783180 0.130703 0.273931 0.031415 -0.686834 -0.147517 0.953256 -0.845864 -0.055024 -0.016267 1.482778 0.246475 0.348645 -0.743010 0.329249 -0.576803 0.337306 0.106521 1.067429 0.804039 -1.023191 0.175332 0.785782 -0.681835 -0.616706 0.019841 0.055532 -0.734084 -0.702016 -0.729351 -0.386997 0.009938 0.578280 -0.894380 -0.231086 -1.184360
K 0.926083 0.185109 -0.337801 -0.006523 -0.051365 0.428412 -0.066788 -0.216361 -0.408967 -0.532742 1.379348 1.063408 0.361926 -0.681136 -0.180992 -0.049954 -0.378235 0.514247 -0.654243 0.096817 -0.508979 0.110289 -0.244122 -0.546312 0.083791 -0.448886 -0.135899 -0.128768 0.279481 0.023093 0.353027 0.199576 1.033629 0.708676 -0.445963 1.094556 -0.575723 0.088007 -0.397594 -0.339156 0.177572 0.214749 -0.304830 -0.297182 0.406638 0.044664 0.006265 -0.170159 0.868480 -0.261478 -0.023004 -0.197747 -0.068732 0.327500 -0.675808 0.051608 -0.603327 -0.132712 -0.231359 0.857275 -0.150495 0.210463 0.213813 0.905784 -0.333175 -0.456719 -0.886392 -0.050683 0.171129 0.869595 1.141779 -0.555662 -0.199024 0.432733 -0.134490 -0.627921 0.327240 1.062131 -0.200523 -0.064089 -0.146397 -0.733174 -0.943152 1.031034 -0.586375 -0.322517 0.200509 0.189721 -0.527131 -0.175232 0.001527 0.113709 0.775133 0.128453 0.256332 0.020915 -0.671502 -0.152324 0.964832 -0.844066 -0.046171 -0.021906 1.469840 0.260290 0.356242 -0.703058 0.321971 -0.562263 0.358455 0.100717 1.076396 0.785790 -1.020415 0.160144 0.760933 -0.668772 -0.615656 0.040015 0.036032 -0.731798 -0.664377 -0.691367 -0.346215 -0.022967 0.564950 -0.884085 -0.249090 -1.130736
P 0.869666 0.273253 -0.326806 0.050089 -0.170219 0.460502 -0.096909 -0.291953 -0.507887 -0.451873 1.385687 1.110925 0.443276 -0.662835 -0.217905 -0.090591 -0.372820 0.499875 -0.464171 0.166760 -0.452267 0.152754 -0.186631 -0.599232 0.049027 -0.605582 -0.187903 -0.074180 0.073591 0.020025 0.227532 0.251388 0.929696 0.768090 -0.323317 1.002660 -0.506687 0.227821 -0.361440 -0.443955 0.302193 0.159704 -0.252534 -0.304842 0.316019 -0.036657 -0.093501 -0.200242 0.921944 -0.410006 -0.127051 -0.176414 -0.153164 0.206477 -0.748966 0.088324 -0.520919 -0.075842 -0.175735 0.879786 -0.214922 0.093270 0.058673 0.930951 -0.240642 -0.565349 -0.884828 0.006338 0.097257 1.008478 0.935486 -0.476202 -0.238510 0.333880 -0.115265 -0.746367 0.292393 1.084841 -0.311604 0.050981 -0.140099 -0.724019 -1.043156 0.994730 -0.533422 -0.351652 0.150153 0.263591 -0.561436 -0.108078 -0.043653 0.043434 0.808925 0.114159 0.295246 -0.039759 -0.588045 -0.241876 1.066945 -0.903080 -0.090783 0.022251 1.528221 0.193820 0.507462 -0.718720 0.413658 -0.560410 0.253799 0.239679 1.219248 0.808627 -1.103577 0.267641 0.677888 -0.666310 -0.637667 -0.021269 0.058084 -0.685177 -0.689706 -0.706121 -0.310376 -0.033016 0.657086 -0.955950 -0.369682 -1.165898
N 0.962834 0.140160 -0.353535 -0.022912 -0.019707 0.455997 -0.024976 -0.241263 -0.461133 -0.576858 1.449719 1.071951 0.418764 -0.725414 -0.203364 -0.085480 -0.376584 0.559627 -0.678479 0.135908 -0.528086 0.110685 -0.264559 -0.586535 0.137403 -0.441365 -0.166553 -0.143406 0.270629 0.055450 0.355526 0.201080 1.030223 0.714267 -0.464563 1.092357 -0.600309 0.105901 -0.396837 -0.339354 0.203312 0.180172 -0.279700 -0.321777 0.401620 0.064535 -0.039250 -0.187316 0.834786 -0.283449 -0.048560 -0.196595 -0.054800 0.335342 -0.685219 0.037751 -0.591403 -0.112031 -0.257427 0.822341 -0.149470 0.194388 0.170245 0.889031 -0.346541 -0.444479 -0.938828 -0.065869 0.201110 0.882470 1.150783 -0.563448 -0.208114 0.424383 -0.105959 -0.604202 0.322360 1.043001 -0.156243 -0.055203 -0.159230 -0.744135 -0.926093 1.025164 -0.635495 -0.360214 0.228030 0.151389 -0.508720 -0.150038 0.059443 0.125546 0.761364 0.088980 0.284926 0.058146 -0.700525 -0.148612 0.938186 -0.820693 -0.085695 -0.037561 1.468982 0.227590 0.334902 -0.734893 0.324477 -0.550496 0.294396 0.107087 1.074012 0.787248 -0.980264 0.204434 0.819041 -0.681280 -0.617823 0.000855 0.066243 -0.728081 -0.704779 -0.688548 -0.379078 0.017760 0.570691 -0.873350 -0.226533 -1.162229
Q 0.860162 0.263700 -0.304080 -0.041246 -0.044030 0.497505 -0.058958 -0.280258 -0.462655 -0.495067 1.307496 1.019627 0.366897 -0.682362 -0.184653 -0.114170 -0.382815 0.516891 -0.452441 0.216054 -0.486523 0.133751 -0.284287 -0.614956 0.143223 -0.562000 -0.273297 -0.064416 0.106646 0.024889 0.277020 0.280032 0.901128 0.731015 -0.360801 1.070935 -0.559552 0.173011 -0.413868 -0.388890 0.192833 0.079036 -0.250102 -0.315276 0.397357 -0.036349 -0.047799 -0.238265 0.906596 -0.393161 -0.130261 -0.177318 -0.246338 0.209667 -0.827836 0.088340 -0.507389 -0.089918 -0.177639 0.890577 -0.198919 0.167057 0.101714 0.909341 -0.299444 -0.585198 -0.916528 -0.019384 0.081179 0.980445 0.988076 -0.425108 -0.162184 0.430335 -0.008370 -0.798705 0.393125 1.039959 -0.257679 -0.019095 -0.163158 -0.679624 -1.078603 1.015068 -0.589014 -0.351381 0.233364 0.220107 -0.543893 -0.067562 0.057424 0.106267 0.776951 0.097652 0.331548 -0.009390 -0.634031 -0.212312 1.106562 -0.852828 -0.125615 -0.031520 1.518336 0.229049 0.444843 -0.696781 0.351657 -0.535221 0.297427 0.255076 1.233816 0.825947 -1.095575 0.236055 0.805591 -0.691665 -0.744278 0.013732 -0.011143 -0.753883 -0.668049 -0.710964 -0.264318 -0.069421 0.686581 -0.965509 -0.330066 -1.148366
F 0.905261 0.215433 -0.312926 0.006092 -0.095179 0.414772 -0.080033 -0.251705 -0.432104 -0.490224 1.381410 1.077122 0.393088 -0.666322 -0.211412 -0.058162 -0.394510 0.488407 -0.612108 0.120634 -0.457950 0.132100 -0.198851 -0.563741 0.056967 -0.511069 -0.149596 -0.128562 0.215467 0.040380 0.312143 0.220193 1.030653 0.756618 -0.432563 1.104292 -0.536289 0.117256 -0.387859 -0.385868 0.215387 0.218248 -0.306745 -0.298751 0.379052 0.018251 -0.027440 -0.195874 0.912217 -0.308874 -0.058043 -0.191097 -0.089886 0.287887 -0.753716 0.066756 -0.596298 -0.097394 -0.205069 0.873671 -0.186890 0.168041 0.165517 0.933406 -0.303901 -0.533906 -0.924060 -0.029867 0.173734 0.951978 1.119557 -0.569437 -0.205556 0.393632 -0.152235 -0.683617 0.299129 1.118134 -0.252129 -0.001479 -0.139900 -0.738849 -1.003707 1.067510 -0.578936 -0.315336 0.172363 0.234110 -0.538758 -0.154582 -0.004609 0.072797 0.790502 0.149546 0.281798 -0.021093 -0.665491 -0.171815 1.013014 -0.847126 -0.036997 0.000445 1.511131 0.234981 0.400023 -0.697542 0.350149 -0.589725 0.321302 0.121503 1.131577 0.774542 -1.059013 0.211310 0.732733 -0.665632 -0.599807 0.011007 0.061749 -0.733797 -0.684495 -0.732136 -0.344515 -0.023440 0.574308 -0.892076 -0.295101 -1.136317
Y 0.990934 0.255597 -0.366527 -0.008623 -0.094886 0.485453 -0.047719 -0.292938 -0.483350 -0.529479 1.478799 1.161852 0.460225 -0.726728 -0.228353 -0.055908 -0.439223 0.520535 -0.654137 0.223965 -0.548790 0.166330 -0.268310 -0.664745 0.095071 -0.521582 -0.177008 -0.095827 0.152683 0.017960 0.336835 0.208515 0.984731 0.756390 -0.442409 1.045877 -0.552876 0.144066 -0.366937 -0.379576 0.217236 0.216008 -0.251650 -0.273834 0.380701 0.024335 -0.045625 -0.188006 0.950374 -0.343232 -0.072804 -0.156410 -0.063106 0.247991 -0.722327 0.054035 -0.538356 -0.102751 -0.183058 0.831886 -0.179795 0.111278 0.123725 0.933210 -0.277195 -0.507711 -0.887770 -0.053797 0.136182 0.930878 1.074384 -0.515913 -0.180516 0.409287 -0.101083 -0.682618 0.299050 1.055909 -0.250391 0.028434 -0.144726 -0.734832 -1.030271 1.028482 -0.592542 -0.331181 0.212861 0.186548 -0.509726 -0.115135 -0.029342 0.093798 0.770592 0.131059 0.281709 -0.005503 -0.612386 -0.211669 0.977656 -0.859278 -0.079619 0.006795 1.456364 0.200382 0.419753 -0.740835 0.340889 -0.567464 0.289591 0.191686 1.142836 0.779964 -1.049945 0.180256 0.703103 -0.679652 -0.604247 0.040870 0.047162 -0.666307 -0.694822 -0.736858 -0.381967 -0.031005 0.615322 -0.926249 -0.295740 -1.160326
H 0.878242 0.222035 -0.326562 -0.063320 -0.108573 0.520013 -0.010998 -0.268676 -0.425528 -0.514090 1.373901 1.070244 0.446741 -0.705620 -0.190673 -0.051008 -0.392364 0.547164 -0.573839 0.184896 -0.519717 0.129268 -0.246453 -0.593130 0.156232 -0.548821 -0.211565 -0.030054 0.144295 0.067628 0.216336 0.217839 0.923757 0.770563 -0.395990 0.940591 -0.474511 0.158961 -0.318801 -0.376872 0.244707 0.205434 -0.204151 -0.237730 0.363204 -0.007263 -0.097508 -0.191652 0.830761 -0.370485 -0.104183 -0.149383 -0.066951 0.191022 -0.640742 0.073225 -0.464657 -0.075223 -0.152800 0.745160 -0.122951 0.106394 0.062534 0.809965 -0.297234 -0.479725 -0.823979 -0.082710 0.098802 0.895691 0.976493 -0.452104 -0.175137 0.400610 -0.061371 -0.599772 0.299285 0.920018 -0.291569 0.008309 -0.125858 -0.670925 -0.971424 0.962824 -0.514847 -0.311318 0.141305 0.190590 -0.439410 -0.065510 -0.055543 0.085494 0.799735 0.124045 0.310478 0.058486 -0.603458 -0.193008 1.004370 -0.858303 -0.100086 -0.025177 1.471561 0.175900 0.410767 -0.722439 0.340302 -0.589548 0.235913 0.193611 1.149160 0.797791 -1.059010 0.277072 0.733282 -0.663024 -0.622584 0.004358 0.041549 -0.626356 -0.738988 -0.743733 -0.328825 -0.017191 0.620633 -0.943270 -0.325685 -1.237045
M 0.933165 0.166763 -0.334663 -0.035937 -0.042798 0.465683 -0.027861 -0.208044 -0.394275 -0.565633 1.383937 1.082021 0.397822 -0.701946 -0.165280 -0.041606 -0.375150 0.557735 -0.683848 0.122472 -0.554666 0.111677 -0.266850 -0.554137 0.139157 -0.442607 -0.173362 -0.088489 0.279385 0.049050 0.320218 0.217800 1.017506 0.715025 -0.432538 1.057963 -0.554137 0.073322 -0.388827 -0.336175 0.181746 0.208631 -0.267257 -0.267664 0.412093 0.045920 -0.031154 -0.177803 0.811017 -0.269225 -0.018660 -0.173176 -0.054127 0.313254 -0.641030 0.072836 -0.570426 -0.126446 -0.228551 0.796959 -0.128113 0.210235 0.180599 0.844881 -0.340157 -0.427113 -0.861657 -0.071560 0.168115 0.853063 1.141406 -0.522527 -0.191118 0.436495 -0.084102 -0.579409 0.328981 0.985878 -0.195524 -0.067775 -0.128677 -0.709589 -0.913063 1.000710 -0.563276 -0.326074 0.178981 0.190614 -0.470135 -0.138732 -0.000041 0.130698 0.801071 0.117266 0.293063 0.049447 -0.691017 -0.139768 0.981429 -0.855638 -0.059487 -0.041505 1.506205 0.242139 0.354539 -0.737832 0.318006 -0.585537 0.332862 0.121322 1.085905 0.826799 -1.041237 0.207752 0.803203 -0.687015 -0.648162 0.011120 0.046004 -0.723894 -0.716786 -0.725206 -0.359025 -0.003100 0.597445 -0.925627 -0.236165 -1.213309
C 0.861142 0.219127 -0.298966 -0.037594 -0.145880 0.475556 -0.031595 -0.248179 -0.411264 -0.433186 1.326282 1.039720 0.439770 -0.641474 -0.172402 -0.038172 -0.380960 0.475375 -0.566914 0.209714 -0.488800 0.108426 -0.212183 -0.598355 0.101341 -0.505675 -0.168000 -0.038430 0.093742 0.067707 0.219443 0.244949 0.886876 0.764420 -0.356999 0.916803 -0.437086 0.162023 -0.303899 -0.412597 0.234884 0.246277 -0.198585 -0.219667 0.348937 -0.002617 -0.119126 -0.196043 0.823557 -0.366137 -0.075828 -0.137663 -0.020637 0.183461 -0.639680 0.077861 -0.444381 -0.068576 -0.137761 0.723900 -0.119614 0.058015 0.030021 0.797268 -0.248583 -0.470223 -0.787547 -0.063985 0.068309 0.884601 0.954529 -0.451609 -0.188065 0.366674 -0.063320 -0.580446 0.263253 0.922585 -0.301840 0.052530 -0.105760 -0.645134 -0.962211 0.938153 -0.487209 -0.314136 0.135710 0.200890 -0.437750 -0.053030 -0.077571 0.044757 0.728640 0.123830 0.270858 0.026497 -0.526120 -0.168293 0.908473 -0.777814 -0.057518 -0.003917 1.411466 0.119556 0.376835 -0.680456 0.342283 -0.540095 0.230157 0.192259 1.072698 0.725744 -0.992077 0.222672 0.626275 -0.615325 -0.531403 -0.013784 0.045624 -0.576324 -0.700570 -0.730450 -0.328445 -0.011342 0.592182 -0.874434 -0.298528 -1.169608
W 0.915779 0.170155 -0.306002 -0.101523 -0.059916 0.472264 0.005750 -0.230817 -0.364356 -0.531325 1.376252 1.053113 0.408821 -0.703147 -0.168349 -0.032164 -0.390200 0.537768 -0.677567 0.164357 -0.511535 0.098156 -0.256652 -0.564521 0.160940 -0.477298 -0.207546 -0.066127 0.229164 0.096388 0.283724 0.235566 1.029748 0.795265 -0.473220 1.081903 -0.517053 0.076753 -0.379745 -0.360832 0.190623 0.249686 -0.257148 -0.241753 0.442285 0.031271 -0.054382 -0.205797 0.853812 -0.307480 -0.047283 -0.155431 -0.048249 0.266440 -0.710013 0.076075 -0.534969 -0.098015 -0.176588 0.795894 -0.110111 0.157483 0.145645 0.851752 -0.349177 -0.491243 -0.883339 -0.110733 0.150008 0.906796 1.167009 -0.526165 -0.162944 0.457714 -0.074752 -0.599266 0.321627 0.997635 -0.249044 -0.025008 -0.121399 -0.702185 -1.003311 1.060445 -0.564933 -0.308989 0.164205 0.189156 -0.429653 -0.095198 -0.010404 0.101011 0.787218 0.151386 0.309036 0.061278 -0.663750 -0.130415 1.004063 -0.822307 -0.062037 -0.040020 1.542558 0.204466 0.326961 -0.719237 0.293369 -0.600283 0.290550 0.123449 1.119614 0.801992 -1.062113 0.226722 0.797101 -0.689824 -0.628375 0.016591 0.032224 -0.687266 -0.740243 -0.788683 -0.349657 -0.009310 0.597109 -0.918161 -0.265271 -1.244186
X -0.705926 -0.426534 0.423786 0.196327 -0.298030 -0.632212 -0.235827 -0.031391 0.003400 0.367958 -0.230912 -0.538671 -0.173950 0.451359 0.067004 -0.412576 0.263263 -0.093070 0.552686 -1.097010 1.318090 -0.159085 0.955875 0.712080 -0.413049 -0.485727 0.148265 -0.341447 0.149724 0.487338 -0.427084 0.051399 1.116916 0.675951 -0.335420 0.983001 -0.032200 0.002243 -0.145030 -0.598000 0.493065 0.458622 -0.733963 -0.396773 -0.043193 -0.112905 -0.070470 -0.409811 0.188257 0.103766 -0.040487 -0.401210 -0.188463 0.376024 -0.885007 0.099890 -0.766606 0.293337 -0.223948 1.003266 -0.309457 -0.023568 0.071689 0.623070 -0.323487 -0.744366 -0.911203 0.086292 0.434538 1.204627 0.986399 -0.910856 -0.388812 -0.166228 -1.113087 -0.528601 -0.151323 1.403010 -0.442097 0.229571 0.147312 -0.562854 -0.875777 1.059494 -0.278061 -0.348386 -0.355740 0.464658 -0.302235 -0.211009 -0.012969 -0.386662 0.189359 0.366698 0.016799 -0.149550 -0.666938 0.194199 0.857596 -0.157297 0.140014 0.252904 1.392009 0.134423 -0.242815 0.125460 0.550158 -0.371773 -0.337477 -0.575930 0.491839 -0.001511 -0.522149 0.621201 0.324252 -0.212588 0.183452 -0.559227 0.393463 -0.551660 -0.226830 -0.421535 0.162684 0.160350 -0.223846 0.234087 -0.242470 -0.474735
B 0.026544 0.051258 -0.034521 0.145117 -0.031254 -0.078639 -0.097319 -0.053435 -0.126660 0.029391 0.056116 0.032052 0.000938 0.002971 -0.091279 -0.045063 -0.000893 -0.061456 0.099396 -0.074408 0.128946 0.038367 0.077551 0.014194 -0.134142 -0.073264 0.047207 -0.097048 -0.002617 -0.066687 0.066914 -0.049017 0.086863 -0.007949 -0.012111 0.145149 -0.087444 0.087210 -0.073128 -0.028775 0.077750 -0.072362 -0.104110 -0.111284 -0.062244 -0.002638 0.045224 0.007684 0.150913 -0.029418 -0.051278 -0.083190 -0.122667 0.036763 -0.163725 -0.045717 -0.114995 -0.017593 -0.055449 0.212487 -0.123084 0.036261 0.076775 0.193687 0.030551 -0.117127 -0.149111 0.103653 0.081095 0.140610 0.012081 -0.104840 -0.063395 -0.076262 -0.142534 -0.200049 0.000199 0.301582 0.021038 0.010792 -0.046810 -0.116946 -0.071119 0.088576 -0.078640 -0.013467 0.013208 0.067254 -0.195912 -0.115666 0.058029 -0.056775 0.034881 -0.008205 -0.004330 -0.114435 -0.049719 -0.068773 0.111107 -0.076938 0.008102 0.047214 0.075726 0.089142 0.110098 0.003086 0.055680 0.008896 0.041722 -0.004490 0.101866 0.002121 -0.047012 -0.010836 -0.007595 -0.033962 -0.026091 0.005888 0.035067 -0.110660 0.065732 0.064684 0.004353 -0.047290 -0.001469 -0.003231 -0.076518 0.147730
Z -0.017119 0.067912 -0.031841 0.165704 -0.020651 -0.071146 -0.117914 -0.016270 -0.118536 0.039198 -0.019783 -0.016795 -0.046403 0.034886 -0.060667 -0.047087 0.038242 -0.071203 0.175550 -0.059863 0.084618 0.027210 0.034274 0.022115 -0.115383 -0.039067 0.045941 -0.078178 -0.029214 -0.117352 0.062159 -0.054559 -0.049908 -0.102787 0.073392 0.026859 -0.075715 0.104150 -0.050798 0.008809 0.048115 -0.140089 -0.066507 -0.103043 -0.088895 -0.024101 0.051944 0.033917 0.074076 -0.023908 -0.051139 -0.071898 -0.154895 0.014465 -0.075047 -0.041935 -0.058502 -0.027809 -0.062838 0.158630 -0.100077 0.040691 0.055808 0.124041 0.056174 -0.045686 -0.046637 0.128820 0.024603 0.037140 -0.144641 -0.005161 -0.064532 -0.089940 -0.074346 -0.163625 0.018553 0.173041 0.058822 -0.018366 -0.062021 -0.059565 0.025863 -0.049368 -0.035752 -0.006483 0.039683 0.036634 -0.181524 -0.104607 0.055653 -0.032978 0.000378 -0.049703 -0.033591 -0.107542 0.014820 -0.083241 0.052806 -0.061569 -0.011705 0.037475 -0.038962 0.072995 0.126782 0.033279 0.043942 0.074896 0.042628 0.036942 0.051756 -0.009145 0.008842 -0.044540 -0.048154 0.005704 -0.045574 0.020655 0.011380 -0.079880 0.124404 0.158601 0.046230 -0.052983 0.013554 0.009433 -0.043437 0.215884
U 0.109360 0.332772 -0.106184 0.143431 -0.150564 0.154960 -0.106949 -0.115852 -0.187689 0.093178 0.087740 0.204031 0.100210 -0.064865 -0.119942 0.062387 -0.098424 -0.104659 0.214576 0.276618 -0.146314 0.107990 -0.094402 -0.231646 -0.093898 -0.169711 -0.013037 0.111805 -0.321954 -0.218577 -0.014881 -0.027235 -0.351497 -0.079712 0.229492 -0.286042 0.068824 0.261098 0.067621 -0.014866 0.072808 -0.168136 0.163264 0.051970 -0.168614 -0.099985 -0.053024 0.079533 0.197567 -0.246090 -0.159541 0.039794 -0.143278 -0.282546 0.029910 -0.034333 0.235026 -0.015790 0.126497 -0.025172 -0.071350 -0.136148 -0.148035 0.030668 0.248071 -0.040574 0.200449 0.135252 -0.203658 -0.036639 -0.553223 0.268017 0.005079 -0.133971 0.138315 -0.182669 -0.001230 -0.074696 -0.093445 0.108793 -0.061501 0.062441 -0.004210 -0.259035 0.132527 0.087137 0.002449 0.043887 -0.147605 0.045116 -0.124917 -0.073148 0.031487 -0.075119 0.000241 -0.149748 0.290780 -0.231309 0.029974 -0.124654 -0.044123 0.039648 -0.195424 -0.059564 0.350969 -0.017355 0.026305 0.085709 0.028096 0.321680 0.183377 0.005671 -0.071633 -0.075139 -0.279862 0.028894 -0.066701 0.122165 -0.072964 0.150771 0.089526 0.120671 0.045886 -0.162374 0.171643 -0.186102 -0.198504 0.187510
O -0.127848 0.001793 0.045010 0.048078 -0.004749 -0.088462 -0.016182 0.033194 0.043464 0.083184 -0.200686 -0.145211 -0.063040 0.109442 0.012780 0.016990 0.050874 -0.097899 0.103683 -0.048173 0.089338 0.002391 0.055875 0.093069 -0.050570 0.068278 0.041910 0.000432 -0.028071 -0.033987 -0.025571 -0.062264 -0.127630 -0.120976 0.069445 -0.151557 0.072708 -0.004969 0.047010 0.059465 -0.021439 -0.037240 0.019709 0.038928 -0.080001 -0.002446 0.022530 0.040697 -0.098767 0.054025 0.009052 0.013496 -0.006580 -0.041286 0.090521 -0.023032 0.060675 0.000783 0.018548 -0.085135 -0.001412 -0.014579 0.001442 -0.103822 0.062471 0.063448 0.127176 0.028574 -0.002740 -0.129773 -0.163214 0.060040 0.018827 -0.082032 -0.021461 0.069611 -0.058873 -0.099859 0.035560 0.006777 0.015497 0.082457 0.156025 -0.150979 0.089165 0.067471 -0.034046 -0.008522 0.036352 -0.014836 -0.009247 -0.028935 -0.104371 -0.014915 -0.051678 -0.038062 0.094328 0.006817 -0.138532 0.098007 0.028129 0.019507 -0.233339 -0.007120 -0.024789 0.110446 -0.040385 0.083056 -0.030855 -0.030186 -0.162858 -0.120966 0.141550 -0.040479 -0.142622 0.101109 0.095064 0.009208 -0.000647 0.095310 0.126935 0.132643 0.044482 -0.017361 -0.095926 0.128592 0.023832 0.226953
<unk> 0.703684 0.189008 -0.255107 0.031127 -0.099239 0.340542 -0.076850 -0.216959 -0.384954 -0.372550 1.102300 0.851239 0.324759 -0.529646 -0.173572 -0.070818 -0.300230 0.386643 -0.407248 0.094104 -0.332635 0.107526 -0.150657 -0.452516 0.037637 -0.450757 -0.137699 -0.089932 0.121799 0.021804 0.223622 0.174690 0.797700 0.606350 -0.313548 0.867063 -0.432536 0.144711 -0.311732 -0.328849 0.209433 0.138969 -0.243287 -0.254256 0.277274 -0.006887 -0.040816 -0.163142 0.739713 -0.284071 -0.079268 -0.163215 -0.123552 0.201248 -0.628441 0.049004 -0.457841 -0.073690 -0.162380 0.736953 -0.164409 0.112940 0.104751 0.761786 -0.224631 -0.449912 -0.740861 -0.002145 0.115615 0.799294 0.830680 -0.428131 -0.178329 0.289694 -0.127724 -0.598024 0.247307 0.920050 -0.215447 0.009819 -0.117525 -0.597760 -0.832214 0.832947 -0.458791 -0.270786 0.133327 0.197053 -0.458117 -0.115689 -0.005783 0.039402 0.639748 0.105442 0.231104 -0.029886 -0.515083 -0.166737 0.861320 -0.705271 -0.055452 0.010638 1.251232 0.185991 0.356959 -0.564102 0.306492 -0.453415 0.232239 0.138397 0.959822 0.636492 -0.875275 0.188812 0.583362 -0.549616 -0.510875 -0.005149 0.047089 -0.589965 -0.543361 -0.570267 -0.253216 -0.033906 0.497003 -0.741291 -0.271282 -0.910188
